%YAML:1.0
my_nb: !!opencv-ml-bayesian
   var_count: 14
   var_all: 14
   cls_labels: !!opencv-matrix
      rows: 1
      cols: 2
      dt: i
      data: [ 0, 1 ]
   count:
      - !!opencv-matrix
         rows: 1
         cols: 14
         dt: i
         data: [ 129, 129, 129, 129, 129, 129, 129, 129, 129, 129, 129,
             129, 129, 129 ]
      - !!opencv-matrix
         rows: 1
         cols: 14
         dt: i
         data: [ 103, 103, 103, 103, 103, 103, 103, 103, 103, 103, 103,
             103, 103, 103 ]
   sum:
      - !!opencv-matrix
         rows: 1
         cols: 14
         dt: d
         data: [ 1009., 1516., 736., 1044., 730., 314., 0., 22., 72.,
             107., 139., 133., 86., 485. ]
      - !!opencv-matrix
         rows: 1
         cols: 14
         dt: d
         data: [ 133., 599., 1838., 1209., 846., 363., 1., 24., 47., 82.,
             119., 162., 197., 577. ]
   productsum:
      - !!opencv-matrix
         rows: 14
         cols: 14
         dt: d
         data: [ 7981., 11922., 5732., 8124., 5678., 2446., 0., 170.,
             541., 829., 1085., 1038., 689., 3772., 11922., 17904.,
             8655., 12216., 8551., 3665., 0., 255., 831., 1245., 1624.,
             1563., 1015., 5683., 5732., 8655., 4358., 6023., 4186.,
             1837., 0., 131., 444., 628., 793., 754., 491., 2782., 8124.,
             12216., 6023., 8964., 6065., 2899., 0., 212., 660., 973.,
             1114., 1106., 744., 4155., 5678., 8551., 4186., 6065.,
             4386., 1679., 0., 145., 424., 623., 808., 781., 472., 2812.,
             2446., 3665., 1837., 2899., 1679., 1220., 0., 67., 236.,
             350., 306., 325., 272., 1343., 0., 0., 0., 0., 0., 0., 0.,
             0., 0., 0., 0., 0., 0., 0., 170., 255., 131., 212., 145.,
             67., 0., 28., 11., 19., 20., 20., 11., 103., 541., 831.,
             444., 660., 424., 236., 0., 11., 120., 47., 57., 69., 46.,
             310., 829., 1245., 628., 973., 623., 350., 0., 19., 47.,
             191., 88., 106., 90., 432., 1085., 1624., 793., 1114., 808.,
             306., 0., 20., 57., 88., 249., 116., 80., 504., 1038.,
             1563., 754., 1106., 781., 325., 0., 20., 69., 106., 116.,
             225., 73., 497., 689., 1015., 491., 744., 472., 272., 0.,
             11., 46., 90., 80., 73., 136., 308., 3772., 5683., 2782.,
             4155., 2812., 1343., 0., 103., 310., 432., 504., 497., 308.,
             2001. ]
      - !!opencv-matrix
         rows: 14
         cols: 14
         dt: d
         data: [ 335., 833., 2375., 1429., 980., 449., 1., 48., 74., 71.,
             119., 183., 277., 656., 833., 3539., 10696., 6941., 4853.,
             2088., 6., 150., 282., 466., 664., 915., 1144., 3314.,
             2375., 10696., 32814., 21558., 15091., 6467., 18., 428.,
             840., 1461., 2117., 2888., 3517., 10289., 1429., 6941.,
             21558., 14917., 10407., 4510., 12., 252., 566., 1026.,
             1585., 1995., 2350., 7131., 980., 4853., 15091., 10407.,
             7470., 2937., 10., 192., 399., 703., 1079., 1395., 1652.,
             4977., 449., 2088., 6467., 4510., 2937., 1573., 2., 60.,
             167., 323., 506., 600., 698., 2154., 1., 6., 18., 12., 10.,
             2., 1., 0., 0., 1., 4., 0., 0., 6., 48., 150., 428., 252.,
             192., 60., 0., 30., 13., 6., 6., 29., 39., 129., 74., 282.,
             840., 566., 399., 167., 0., 13., 71., 49., 43., 46., 65.,
             279., 71., 466., 1461., 1026., 703., 323., 1., 6., 49.,
             164., 99., 113., 97., 497., 119., 664., 2117., 1585., 1079.,
             506., 4., 6., 43., 99., 297., 200., 198., 738., 183., 915.,
             2888., 1995., 1395., 600., 0., 29., 46., 113., 200., 426.,
             321., 860., 277., 1144., 3517., 2350., 1652., 698., 0., 39.,
             65., 97., 198., 321., 621., 1009., 656., 3314., 10289.,
             7131., 4977., 2154., 6., 129., 279., 497., 738., 860.,
             1009., 3613. ]
   avg:
      - !!opencv-matrix
         rows: 1
         cols: 14
         dt: d
         data: [ 7.8217054263565888, 11.7519379844961236,
             5.7054263565891477, 8.0930232558139537, 5.6589147286821708,
             2.4341085271317828, 0., 0.1705426356589147,
             0.5581395348837209, 0.8294573643410853, 1.0775193798449612,
             1.0310077519379846, 0.6666666666666666, 3.7596899224806202 ]
      - !!opencv-matrix
         rows: 1
         cols: 14
         dt: d
         data: [ 1.2912621359223302, 5.8155339805825239,
             17.8446601941747574, 11.7378640776699026,
             8.2135922330097095, 3.5242718446601944,
             9.7087378640776691e-03, 0.2330097087378641,
             0.4563106796116505, 0.7961165048543689, 1.1553398058252426,
             1.5728155339805825, 1.9126213592233010, 5.6019417475728153 ]
   inv_eigen_values:
      - !!opencv-matrix
         rows: 1
         cols: 14
         dt: d
         data: [ 0.0160357019125289, 0.1267099590588893,
             0.3222361414041632, 0.8017043634112074, 1.0142443031802910,
             1.0499092212365380, 1.4594414880896827, 1.5630348269152139,
             1.6227026202505537, 3.5633391256100988, 6.0117611798771406,
             8388608., 8388608., 8388608. ]
      - !!opencv-matrix
         rows: 1
         cols: 14
         dt: d
         data: [ 0.0700256091505056, 0.2415181468896841,
             0.2836285874779138, 0.3392830800529286, 0.5303824157919464,
             0.8425664054648455, 0.9772313601256530, 2.0268127336456327,
             3.0064621462813066, 4.8329922427566627, 7.8954781252238959,
             103.9757897316979012, 8388608., 8388608. ]
   cov_rotate_mats:
      - !!opencv-matrix
         rows: 14
         cols: 14
         dt: d
         data: [ -0.9999204839472627, -8.2179690398830278e-03,
             3.2538018301910289e-03, 5.9941781776118750e-03,
             4.3019268439000238e-03, 1.6922513337118521e-03, 0.,
             3.1458346382309154e-04, 2.9273285940799396e-03,
             1.1366413946075531e-03, 2.7076713872675821e-04,
             3.2515738631335014e-04, -2.0341599704798859e-03,
             3.0538601705410685e-03, 7.8602164452333707e-03,
             -0.0671159207593984, 0.1008355919900694, 0.6918997813695651,
             0.1080619525654625, 0.5838378288041026,
             6.6174449004242214e-24, 0.0413776192772765,
             0.1143481267273405, 0.1558033467947341, -0.0416110887453825,
             0.0232571594470808, 0.0705771637951617, 0.3281474540733542,
             -5.5549212159566657e-03, 0.0818208743921162,
             -0.0463256868130448, -0.2540765423946564,
             -0.7761276290321556, 0.5220510866374993,
             -1.3552527156068805e-20, -0.0550567294573041,
             -0.0209101121072415, 0.0190494395117974,
             -0.0939210294610924, -0.0883879973015096,
             0.1172482702140672, -0.1320983837933734,
             1.7849689272021714e-03, 0.1182458041842430,
             0.9453659857422767, -0.0469088533502469,
             -0.0173198659428815, -0.0295889874073656,
             -2.7755575615628914e-17, -7.7854015911562732e-03,
             0.2192710008625093, -0.0169414118132457, 0.0325219111159182,
             -0.1107102111505803, 1.5916079745032900e-03,
             -0.1648563487481954, -2.0829148883013313e-03,
             0.1436295281125304, 0.0466929078523735, 0.0441694595307381,
             0.1030506692466649, -0.0588812097159267,
             -1.1102230246251565e-16, -0.0346968465243091,
             -0.2041951683994867, 0.5055270846818364,
             -0.5649112239122324, 0.3872823829152250, 0.2878830331802247,
             -0.3327198024105201, -1.9321001408240641e-04,
             -0.1591881578362399, -0.0178407495217465,
             0.1182340193902839, 0.0875955660420860, 0.0306384533481981,
             -6.2450045135165055e-17, -0.0273517818521121,
             -0.3386335644272498, 0.3104356438439952, 0.5395377766833781,
             -0.3877338476727605, 0.3971754830976621,
             -0.3751956902826289, 4.8524693721615350e-03,
             -0.6263523100837334, -0.0145026280609795,
             0.0818987304050399, -0.0138988306588071, 0.0957975610638470,
             -1.1102230246251565e-16, -0.0884298919140316,
             0.2825731843977032, -0.2785246167012372, 0.0978735968607709,
             0.4581207608470474, 0.0608137842345867, -0.4505280873197998,
             -4.6343324962311834e-03, 0.5411811547779174,
             0.0459532195483790, 0.1293106334367107,
             2.8507516668023155e-03, 0.1264598817699082,
             2.7755575615628914e-17, -7.0528546404417690e-03,
             -0.3478257084077730, -0.2957960740699341,
             0.4094112377579910, 0.5299466090995937, -0.0437714505068891,
             -0.1156011257958361, 3.5487417352879119e-03,
             -0.3549987430156915, 0.1775323289506684,
             -0.0951650494324063, -0.1315345368359131,
             0.0363694874035062, 1.1102230246251565e-16,
             0.0243545180185399, -0.3888538151795534, 0.4257448433759207,
             0.1518849503827992, 0.2023895476698990, -0.6343384617536622,
             0.1236533680536501, -9.6653778944909145e-04,
             0.3256659370922790, -0.2169969344523960, 0.0675560874681247,
             0.0387797577493454, 0.0287763297187796, 0.,
             -0.3819016566684291, 0.5376159021772365, 0.3825968138648323,
             0.2093793262056249, -0.0303561645649252,
             -0.3625072534473628, -0.2872708800988514,
             -5.2191175705515371e-04, 0.1072576932997445,
             -0.1026291280551734, 0.1009950819551321, 0.0224725316862622,
             0.0785225502688697, 1.1102230246251565e-16,
             0.8417229695863679, 0.1026027088677785,
             -1.0744696584000207e-03, -0.0601961839460027,
             -0.1266048213239962, -0.2660717932997518,
             -0.3893833282708636, -1.1173200512414721e-18,
             -1.0086057150496801e-16, -3.3416339065228135e-16,
             0.4066648398894687, -0.5687353556017615,
             -0.5687353556017615, 0.0619349185194332, 0.1620705157122926,
             0.1620705157122927, 0.1620705157122927, 0.1620705157122927,
             0.1620705157122928, 0.1620705157122929, 0.1620705157122928,
             2.1558218893349495e-19, 9.6863940076833906e-18,
             6.9985972937552858e-17, -0.2689576043499233,
             0.1093803249177366, 0.1093803249177366, 0.8517507495313894,
             0.1595772794321868, 0.1595772794321867, 0.1595772794321865,
             0.1595772794321868, 0.1595772794321867, 0.1595772794321867,
             0.1595772794321867, -3.8210750989705322e-19,
             -4.8197610047978198e-17, -1.6715490411692735e-16,
             0.3919054259462477, -0.1113648363081904,
             -0.1113648363081902, 0.5202737034876044,
             -0.2805405896380577, -0.2805405896380573,
             -0.2805405896380574, -0.2805405896380573,
             -0.2805405896380574, -0.2805405896380573,
             -0.2805405896380574 ]
      - !!opencv-matrix
         rows: 14
         cols: 14
         dt: d
         data: [ -0.1805042716088975, -0.0962900069720967,
             -0.0148366480849901, 0.6900891113683548, 0.4977797217154334,
             0.1923093896529214, 9.5769517701853649e-04,
             -0.0274770700001526, 0.0115518744314395, 0.0645026479883789,
             0.1818919207850097, 0.0716243884613763,
             -4.9402884226002978e-03, 0.3919779429478848,
             0.1055424206987201, 0.0264696372645929, -0.0198033805566658,
             0.0944570531554368, -0.5894573626352251, 0.6839144157906620,
             -2.2146674968031481e-03, -0.0439495021387746,
             0.0235999994269306, 0.1083871676819417, 0.1395820706411610,
             -0.1063598085743486, -0.2555099349346490,
             0.2309217285499789, -0.4130654588042552,
             -0.0138900560068713, 9.5099277863773413e-03,
             -0.2608122651179887, 0.0358495568767653,
             -0.2966618219947540, 6.0158699879075440e-03,
             0.0340607429039971, 0.0747381780350885, 0.1765450962194059,
             -0.0659713772634816, -0.2759870705227660,
             -0.6204760459846665, 0.4102623415065265, 0.8356848729626405,
             0.1542177395998942, 5.7049978958640347e-03,
             0.0222445464921899, 0.1853113056167481, -0.1630667591245580,
             3.3657985134434823e-03, 0.0777004550932935,
             0.1251567982346871, -0.0253360582490740,
             -0.0398929503197508, -0.2860989152644760,
             -0.1360836661116835, 0.3034330845957501,
             -0.2246508980815353, 0.0451713703763846, 0.0157239533958070,
             -0.0317074092569803, -0.0903296852833256,
             0.0586222760263449, -5.4500795754938262e-03,
             0.0205296055118957, 0.0314962929938069, -0.1197282046713491,
             -0.2626816757761032, -0.6174783261604325,
             0.6089676905229979, 0.3126372878976974, 0.0390248358950268,
             5.1658736047038327e-03, 7.1897363959101748e-03,
             0.0445439958525914, -0.0477304786296914, 0.0922744744822827,
             -0.0267970616532334, 0.0960235437695811, 0.0354394899487160,
             0.0705927844890207, -0.8323397963726210, 0.4613297984611190,
             -0.0120609601604297, 0.2523561973704386,
             -0.0195083112839441, -0.0417320355786801,
             -3.6660437143486687e-03, -0.1507895706830409,
             -0.0932469268954121, -0.0575426437876289,
             1.5063056981530108e-03, 0.0863180157209153,
             -0.2822425245602789, -0.7821407416479782,
             0.1874942408735569, 0.2604429395538068, -0.0230975037144488,
             0.4009296973932334, -0.1614954817133913, 0.4148363740622877,
             0.0794634715733671, 0.1242277293444574, 0.0308541291587553,
             0.0933736001857017, -5.5257828180540584e-03,
             0.1922540282810709, 0.7169729451772905, -0.4001042867294299,
             -0.0342311572868414, -0.0104149855928798,
             -0.1358446511176261, -0.1988783805690729,
             -0.0881387456289440, 0.8426064524789711, 0.1844687947894707,
             0.0285565375585211, 0.0304616467354372,
             -1.9051091769159900e-03, 0.0155567262111380,
             0.0990502985139785, -0.4441497921838416, 0.1725715164038051,
             0.0554826972485921, 0.0628120796953725, 0.0271586117177439,
             0.0400743999517323, 0.0196139478837320, 0.1181317379060916,
             0.3625458515855161, -0.1046512025398739,
             -0.0255500564633443, -0.0791011460765292,
             -6.4024193585073940e-04, -0.8418960937798395,
             0.2297164442395721, 5.3748915495404545e-03,
             0.0518897183327894, 0.1649382218137942, 0.0983418731057169,
             0.1876239841344043, 0.0261001397935354, -0.2571731018524466,
             0.9094179316341906, 0.0416123120691965,
             -2.9281433228160185e-03, 0.0445404553920151,
             9.5027190967837908e-03, 0.2941670968165127,
             -0.0683272781367148, -3.6770637739334650e-03,
             -0.0119775438157005, -0.0673626890004853,
             -0.0431252895211305, -0.0675876395961351,
             -1.8392907087603222e-04, 8.6535212736691732e-03,
             0.0113442021772129, -0.0840425850432005,
             -0.0360851879158066, -0.0479573971273941,
             -0.9399195343050657, 0.1246702429480031, 0.1095839365238479,
             0.1262054883961497, 0.1485681432817861, 0.1114455075235178,
             0.1164194138601655, 0.1189842167284061,
             -2.1866668854656221e-16, 4.2517199087187461e-16,
             -1.4135612077402979e-15, -0.4822351758099089,
             0.5846267715902378, 0.5846267715902377, -0.1023915957803304,
             -0.1023915957803291, -0.1023915957803285,
             -0.1023915957803291, -0.1023915957803288,
             -0.1023915957803287, -0.1023915957803287,
             -0.1023915957803288, 4.7421846891429849e-17,
             -6.2067706109738815e-17, 3.2905512412252729e-16,
             0.3899546381657368, -0.0660710533730327,
             -0.0660710533730327, -0.3238835847927082,
             -0.3238835847927042, -0.3238835847927044,
             -0.3238835847927042, -0.3238835847927041,
             -0.3238835847927041, -0.3238835847927042,
             -0.3238835847927041 ]
   c: !!opencv-matrix
      rows: 1
      cols: 2
      dt: d
      data: [ -44.7109167038574995, -34.7287061488765971 ]
