%YAML:1.0
my_nb: !!opencv-ml-bayesian
   var_count: 14
   var_all: 14
   cls_labels: !!opencv-matrix
      rows: 1
      cols: 3
      dt: i
      data: [ 0, 1, 2 ]
   count:
      - !!opencv-matrix
         rows: 1
         cols: 14
         dt: i
         data: [ 109, 109, 109, 109, 109, 109, 109, 109, 109, 109, 109,
             109, 109, 109 ]
      - !!opencv-matrix
         rows: 1
         cols: 14
         dt: i
         data: [ 124, 124, 124, 124, 124, 124, 124, 124, 124, 124, 124,
             124, 124, 124 ]
      - !!opencv-matrix
         rows: 1
         cols: 14
         dt: i
         data: [ 81, 81, 81, 81, 81, 81, 81, 81, 81, 81, 81, 81, 81, 81 ]
   sum:
      - !!opencv-matrix
         rows: 1
         cols: 14
         dt: d
         data: [ 858., 1292., 619., 868., 617., 251., 0., 23., 52., 82.,
             120., 106., 76., 409. ]
      - !!opencv-matrix
         rows: 1
         cols: 14
         dt: d
         data: [ 1124., 1205., 1217., 673., 471., 202., 0., 19., 33.,
             64., 37., 61., 29., 430. ]
      - !!opencv-matrix
         rows: 1
         cols: 14
         dt: d
         data: [ 108., 469., 1446., 974., 670., 304., 1., 15., 38., 70.,
             101., 128., 164., 457. ]
   productsum:
      - !!opencv-matrix
         rows: 14
         cols: 14
         dt: d
         data: [ 6816., 10210., 4849., 6822., 4829., 1993., 0., 178.,
             402., 644., 941., 834., 612., 3211., 10210., 15372., 7341.,
             10274., 7296., 2978., 0., 273., 609., 964., 1424., 1252.,
             903., 4849., 4849., 7341., 3657., 4990., 3528., 1462., 0.,
             141., 312., 479., 690., 590., 433., 2345., 6822., 10274.,
             4990., 7340., 5051., 2289., 0., 200., 461., 765., 926.,
             875., 660., 3453., 4829., 7296., 3528., 5051., 3709., 1342.,
             0., 142., 290., 494., 711., 620., 425., 2369., 1993., 2978.,
             1462., 2289., 1342., 947., 0., 58., 171., 271., 215., 255.,
             235., 1084., 0., 0., 0., 0., 0., 0., 0., 0., 0., 0., 0., 0.,
             0., 0., 178., 273., 141., 200., 142., 58., 0., 29., 10.,
             16., 14., 14., 15., 102., 402., 609., 312., 461., 290.,
             171., 0., 10., 70., 34., 38., 48., 45., 216., 644., 964.,
             479., 765., 494., 271., 0., 16., 34., 148., 61., 83., 78.,
             345., 941., 1424., 690., 926., 711., 215., 0., 14., 38.,
             61., 220., 99., 71., 423., 834., 1252., 590., 875., 620.,
             255., 0., 14., 48., 83., 99., 176., 56., 399., 612., 903.,
             433., 660., 425., 235., 0., 15., 45., 78., 71., 56., 120.,
             275., 3211., 4849., 2345., 3453., 2369., 1084., 0., 102.,
             216., 345., 423., 399., 275., 1693. ]
      - !!opencv-matrix
         rows: 14
         cols: 14
         dt: d
         data: [ 11148., 11731., 11376., 6104., 4380., 1724., 0., 207.,
             291., 519., 338., 497., 289., 3963., 11731., 12463., 12134.,
             6572., 4654., 1918., 0., 223., 335., 572., 364., 544., 317.,
             4217., 11376., 12134., 12569., 6482., 4670., 1812., 0.,
             192., 285., 591., 369., 528., 266., 4251., 6104., 6572.,
             6482., 4381., 2707., 1674., 0., 162., 325., 561., 304.,
             397., 275., 2357., 4380., 4654., 4670., 2707., 2021., 686.,
             0., 101., 151., 267., 145., 199., 126., 1718., 1724., 1918.,
             1812., 1674., 686., 988., 0., 61., 174., 294., 159., 198.,
             149., 639., 0., 0., 0., 0., 0., 0., 0., 0., 0., 0., 0., 0.,
             0., 0., 207., 223., 192., 162., 101., 61., 0., 51., 2., 20.,
             2., 12., 2., 73., 291., 335., 285., 325., 151., 174., 0.,
             2., 123., 2., 16., 26., 37., 119., 519., 572., 591., 561.,
             267., 294., 0., 20., 2., 244., 2., 14., 63., 216., 338.,
             364., 369., 304., 145., 159., 0., 2., 16., 2., 155., 2.,
             13., 114., 497., 544., 528., 397., 199., 198., 0., 12., 26.,
             14., 2., 205., 0., 138., 289., 317., 266., 275., 126., 149.,
             0., 2., 37., 63., 13., 0., 97., 63., 3963., 4217., 4251.,
             2357., 1718., 639., 0., 73., 119., 216., 114., 138., 63.,
             1634. ]
      - !!opencv-matrix
         rows: 14
         cols: 14
         dt: d
         data: [ 254., 667., 1928., 1180., 816., 364., 1., 29., 68., 71.,
             101., 135., 237., 538., 667., 2753., 8377., 5585., 3849.,
             1736., 6., 93., 229., 394., 566., 716., 965., 2616., 1928.,
             8377., 25824., 17376., 11961., 5415., 18., 268., 680.,
             1248., 1800., 2284., 2931., 8147., 1180., 5585., 17376.,
             12282., 8369., 3913., 12., 170., 450., 897., 1354., 1627.,
             1961., 5811., 816., 3849., 11961., 8369., 5904., 2465., 10.,
             122., 324., 622., 905., 1106., 1339., 3941., 364., 1736.,
             5415., 3913., 2465., 1448., 2., 48., 126., 275., 449., 521.,
             622., 1870., 1., 6., 18., 12., 10., 2., 1., 0., 0., 1., 4.,
             0., 0., 6., 29., 93., 268., 170., 122., 48., 0., 19., 10.,
             5., 3., 16., 26., 91., 68., 229., 680., 450., 324., 126.,
             0., 10., 56., 36., 33., 38., 61., 216., 71., 394., 1248.,
             897., 622., 275., 1., 5., 36., 154., 89., 101., 84., 427.,
             101., 566., 1800., 1354., 905., 449., 4., 3., 33., 89.,
             241., 186., 166., 632., 135., 716., 2284., 1627., 1106.,
             521., 0., 16., 38., 101., 186., 352., 247., 687., 237.,
             965., 2931., 1961., 1339., 622., 0., 26., 61., 84., 166.,
             247., 542., 835., 538., 2616., 8147., 5811., 3941., 1870.,
             6., 91., 216., 427., 632., 687., 835., 2917. ]
   avg:
      - !!opencv-matrix
         rows: 1
         cols: 14
         dt: d
         data: [ 7.8715596330275233, 11.8532110091743128,
             5.6788990825688073, 7.9633027522935782, 5.6605504587155959,
             2.3027522935779818, 0., 0.2110091743119266,
             0.4770642201834863, 0.7522935779816514, 1.1009174311926606,
             0.9724770642201835, 0.6972477064220184, 3.7522935779816513 ]
      - !!opencv-matrix
         rows: 1
         cols: 14
         dt: d
         data: [ 9.0645161290322580, 9.7177419354838701,
             9.8145161290322580, 5.4274193548387100, 3.7983870967741935,
             1.6290322580645162, 0., 0.1532258064516129,
             0.2661290322580645, 0.5161290322580645, 0.2983870967741936,
             0.4919354838709677, 0.2338709677419355, 3.4677419354838710 ]
      - !!opencv-matrix
         rows: 1
         cols: 14
         dt: d
         data: [ 1.3333333333333333, 5.7901234567901234,
             17.8518518518518512, 12.0246913580246915,
             8.2716049382716044, 3.7530864197530862, 0.0123456790123457,
             0.1851851851851852, 0.4691358024691358, 0.8641975308641975,
             1.2469135802469136, 1.5802469135802468, 2.0246913580246915,
             5.6419753086419755 ]
   inv_eigen_values:
      - !!opencv-matrix
         rows: 1
         cols: 14
         dt: d
         data: [ 0.0158437828813937, 0.1270533211405963,
             0.3194763044186501, 0.7582247898687505, 1.0430432865050938,
             1.2201083985185694, 1.4745172696834132, 1.7521532860242088,
             1.9776840990498539, 4.1359906661185288, 6.8574576188204626,
             8388608., 8388608., 8388608. ]
      - !!opencv-matrix
         rows: 1
         cols: 14
         dt: d
         data: [ 0.0109555391018075, 0.0831080096665848,
             0.1318073463253957, 0.3206486304293690, 0.3441230740836783,
             0.6064590839896521, 0.6998362114735721, 1.0052303224024695,
             1.0988787381448488, 2.7885146575613708, 3.8401004036092425,
             8388608., 8388608., 8388608. ]
      - !!opencv-matrix
         rows: 1
         cols: 14
         dt: d
         data: [ 0.0693732761982532, 0.2065119164489751,
             0.2876678056400804, 0.3703725993046930, 0.4835664787409704,
             0.8687772875419494, 0.9741942188600233, 2.0108205576211642,
             3.3877592709334610, 6.2082813395995542, 9.1461283479046109,
             85.6891441499202955, 8388608., 8388608. ]
   cov_rotate_mats:
      - !!opencv-matrix
         rows: 14
         cols: 14
         dt: d
         data: [ -0.9999581204639194, -5.9254211973831881e-03,
             3.5416741346495808e-03, 1.7010592992630117e-03,
             4.3164842870656445e-03, -2.6154249878026334e-03, 0.,
             4.6539624530779505e-04, 1.0850586001081169e-03,
             2.4524365798222201e-04, 5.6624950816669851e-04,
             7.4447520915514988e-05, -2.0538662228738111e-03,
             1.3185299896564763e-03, 1.0111324351036431e-03,
             -0.0149949374498509, 0.1073744399543115, 0.6862366889935652,
             0.1162645490348737, 0.5699721399586914,
             2.6469779601696886e-23, 0.0272820710528283,
             0.0886676844574996, 0.1907041886378338, -0.0910629083888769,
             0.0373853873660228, 0.0933080477273788, 0.3399522181408787,
             -6.2039853923077310e-03, 0.0640431457371455,
             -0.0918214383402213, -0.2596553222495090,
             -0.7718431286825919, 0.5121878064330830,
             -6.7762635780344027e-21, -0.0348308485018209,
             0.0616977531063743, -0.0344704303218596,
             -0.1840302903849892, -0.0585390429407031,
             0.0911306140830039, -0.1006130772895144,
             2.2428140780297746e-03, 0.0889576039646901,
             0.9050512368128643, -0.0533680405082536,
             -0.0777930454455844, 0.0244250049373309,
             2.0816681711721685e-17, 0.0533127965995924,
             0.0913283008378902, -0.0976986955475773, 0.2335126699725170,
             -0.2859462930879196, 0.0275377706955594,
             -0.0754145899783157, -1.0121265493124886e-03,
             -0.1096177291630924, -0.0412159264088652,
             0.1240229043817360, 0.1025672028312617, 0.0214557015504742,
             0., -0.0988062974443310, -0.0681024188925400,
             0.3766396172768427, 0.0525267927057002, -0.1114939347078283,
             0.6143702015529963, -0.6411110561091042,
             2.2843327689023273e-03, -0.1461611278310007,
             0.3570897902621910, -0.0831067224236856, 0.0208042954668551,
             -0.1039110178905411, -7.2858385991025898e-17,
             0.0412897754734271, 0.0770566297947734, 0.2739741964328876,
             -0.6715135868064628, 0.5024147190494289,
             -0.1512272555449506, -0.1551012008227891,
             -2.2937682484765662e-04, 0.0772286846826917,
             -0.0537128871142624, -0.1371455504962590,
             0.0506762298575071, -0.1878217803537661,
             1.3877787807814457e-17, 0.2504539364110100,
             -0.0125367891592421, 0.2763106910896075,
             -0.4769329168742758, -0.6608707885125698,
             0.1633959129623699, 0.3230344035868410,
             -3.3425307318379780e-03, 0.5231429240755884,
             0.0609458282768436, -0.0496703338110687,
             -0.0763158955390812, 0.0266455617280128,
             -1.6653345369377348e-16, -0.0668680543761218,
             -0.6096098384892952, 0.5039665136396466, 0.1639514552916295,
             0.1081493300146752, -0.2046324459986431, 0.0553727061070402,
             4.6310601473867593e-03, -0.7700553104370899,
             0.0211407354324430, -0.0741978164351385,
             -0.1251105473592842, 0.0509127309241454, 0.,
             -0.0797950356096288, -0.1619706495702014,
             0.3796212011523211, 0.2304886200709022, -0.1812412376749664,
             -0.3379785427402122, 0.0766778279366466,
             -4.6666831124360408e-04, 0.2399275481798406,
             -0.0590715048690592, -0.0329458413674129,
             0.0311335042825455, -0.0640793456499576,
             -1.1102230246251565e-16, -0.6242207452400005,
             0.5995946314054311, 0.3290026161304297, 0.0433252314745535,
             -0.1422019925973806, -0.2306894063394411,
             -7.7561762010055291e-03, -2.8823697649728975e-04,
             0.1554115224931208, -0.1454701202501821, 0.1317107987139726,
             0.0296187827215993, 0.1020920159923728,
             5.5511151231257827e-17, 0.6245641837946171,
             0.2853934253756609, 0.1511943772947860, 0.0991987947461677,
             -0.1288709647772131, -0.4641673215145151,
             -0.4356016962055317, 2.2426677170650976e-18,
             -4.8620659081272443e-16, 7.1145690489104553e-17,
             -0.5552130195288550, 0.5818672665512756, 0.5818672665512757,
             0.0981138572660322, -0.0266542470224200,
             -0.0266542470224206, -0.0266542470224204,
             -0.0266542470224202, -0.0266542470224202,
             -0.0266542470224203, -0.0266542470224205,
             1.0327270144803318e-19, 5.7553896923521399e-17,
             -1.4318379297944515e-16, -0.2714942241728178,
             -0.0849779575129216, -0.0849779575129215,
             0.1494706175277533, 0.3564721816857396, 0.3564721816857396,
             0.3564721816857397, 0.3564721816857396, 0.3564721816857394,
             0.3564721816857392, 0.3564721816857393,
             2.7754975462423935e-19, -6.3323527999435449e-17,
             1.8630969984467287e-17, -0.0966112675237092,
             0.0451144966679302, 0.0451144966679302, -0.9838862767150750,
             0.0514967708557790, 0.0514967708557789, 0.0514967708557789,
             0.0514967708557789, 0.0514967708557790, 0.0514967708557791,
             0.0514967708557790 ]
      - !!opencv-matrix
         rows: 14
         cols: 14
         dt: d
         data: [ -0.9961427760905380, -0.0781218102664092,
             -0.0349453524618632, 4.0803891447691265e-04,
             -0.0108597954411244, 0.0112678343556013,
             -6.1629758220391547e-33, -3.3763061606619728e-03,
             8.4114423621948066e-04, 6.1578046224236615e-03,
             -1.9387667577152237e-04, 5.7811534261365972e-03,
             -2.3900197619416467e-03, -6.4118607719276842e-03,
             0.0264250793019917, -0.1038897709889773,
             -0.2698569140387909, 0.6536936160543667, 0.0287000294045856,
             0.6249935866497811, -2.1175823681357508e-22,
             0.0382195773534486, 0.1327823614697170, 0.2153750468038383,
             0.0926145097683426, 0.0945729007705115, 0.1132757040001781,
             -0.0331464841116696, -0.0803187973817209,
             0.7493118497712571, 0.5574995329836639, 0.2467501375585784,
             0.1712182343719521, 0.0755319031866263, 0.,
             0.0574973571195858, 0.0492540798312408, 0.0290306680070634,
             0.0508908724388944, -0.0797939035124565, 0.0646945665547942,
             0.0751764971194562, -6.5967282765861052e-03,
             0.2567841848005985, 0.0388699771459392, -0.2913785642474591,
             -0.6698098649884859, 0.3784313007410274, 0.,
             -0.0561471953096173, -0.0305173502171877,
             -0.1294590449789666, 0.0393280314083646, 0.2664190406725565,
             0.0213951531862494, -0.4023971990088578, 0.0220761799271603,
             -0.5648491000686841, 0.7603772686359086, 0.0341242901498441,
             -0.1127395573663023, 0.1468638475161466, 0.,
             -0.0385360628816680, -0.0902297237823542,
             0.2107756002171513, 0.0798420190937790, -0.0436983054692229,
             -0.0199539068545320, -0.0640753301733091,
             2.8549506283981076e-03, -0.1420497966191942,
             0.1364103715556647, 0.1532845494728549, 0.1979461768754917,
             -0.0446616274026367, -1.1102230246251565e-16,
             5.2429699878264934e-03, 0.2974861930570188,
             -0.6957574460681349, 0.3246364973880960, 0.4348448339070632,
             -0.1645893140712164, -0.0485791847277982,
             -8.0361152842760124e-04, 8.7234089283447381e-03,
             0.0722306730852975, 0.0760031680017023, 0.2343873907788177,
             -0.1583842227771159, 2.7755575615628914e-17,
             0.0913682814805553, -0.0966374956430053, 0.2319513850932372,
             -0.5641662191748401, 0.6656427497630374, 0.0226889642338079,
             -0.2748444977510905, 1.2415771099541469e-03,
             -0.0366403765856923, 0.0886093410509768,
             -0.0355824751469234, -0.2426719281123946,
             0.2070894529654713, 7.4593109467002705e-17,
             4.8676714609004391e-04, 0.4110232224821594,
             -0.1508803192067031, -0.5806920606852626,
             -0.0164205114280872, -0.2453488988007498,
             0.5462493253456304, -2.5954301821205371e-03,
             0.0803534604161212, -0.0493091870524408, 0.0231739584687127,
             -0.0667356829847023, 0.0899096414534147,
             8.3266726846886741e-17, 0.1837551351077381,
             -0.5447682094051639, 0.1169036975522709, 0.2298729108031692,
             0.2710844124241745, -0.6068348795005521, 0.3731608914870768,
             -1.2653225154204903e-03, 0.0787977084305790,
             -0.0189144702197340, -0.0326781024549413,
             0.0309895607582269, -0.0636676632131694,
             1.1102230246251565e-16, -0.8877828671044347,
             0.1396797700640130, 0.2670934543537233, 0.1599431991791573,
             0.2283423351052357, -0.0900128235496083, 0.1500588294969689,
             -7.9102613415067008e-04, -0.0487904641384068,
             0.0316234911573585, 0.0478010336652572, -0.0462312939165997,
             0.0940323275818573, 0., -0.1727696233594132,
             -0.5073213065356992, -0.3397969732049388,
             -0.1057231275377365, 0.1525291256800026, 0.6225234366919630,
             0.3983595019310868, 0., 1.2640886754562453e-16,
             -1.4205763720376280e-16, -0.5863324367175342,
             0.5699327973470431, 0.5699327973470427, -0.0684459602084195,
             0.0163996393704909, 0.0163996393704916, 0.0163996393704918,
             0.0163996393704914, 0.0163996393704917, 0.0163996393704911,
             0.0163996393704913, 0., -1.4570697964836324e-16,
             3.9004771319205525e-17, 0.1916512691562461,
             0.0890826190382973, 0.0890826190382977, -0.6290610090727052,
             -0.2807338881945431, -0.2807338881945446,
             -0.2807338881945444, -0.2807338881945439,
             -0.2807338881945434, -0.2807338881945421,
             -0.2807338881945428, 0., 1.1315497722389769e-16,
             -1.0969756842751634e-17, -0.1038672831538680,
             -0.1227476291012327, -0.1227476291012330,
             -0.7743367467682116, 0.2266149122551003, 0.2266149122551017,
             0.2266149122551014, 0.2266149122551009, 0.2266149122551006,
             0.2266149122550998, 0.2266149122551001 ]
      - !!opencv-matrix
         rows: 14
         cols: 14
         dt: d
         data: [ -0.1819445666217537, -0.0764688810969440,
             -0.0156331242838934, 0.6887227312253441, 0.3902278011957027,
             0.2984949300296414, 7.3731534438927252e-04,
             -0.0119057573354235, -0.0110011437998077,
             0.0767384547908468, 0.1779521195309129, 0.0888590627973628,
             -0.0731389122960105, 0.4404815921930739,
             -0.0722677588946696, -6.1386369968535011e-03,
             0.0265808062996229, -0.0424307764809366, 0.6746763097306145,
             -0.7171070862115514, 6.3102607947865316e-03,
             0.0111674219186359, 0.0545416554237678, 0.0713452197544671,
             -0.0355121650066478, 0.0116488196639049,
             -0.0752727776334514, -0.0866592113964000,
             -0.0681846139024111, -0.0165031240064594,
             0.0146286680056043, 0.2242158647856788, 0.1378419314200371,
             0.0863739333656416, -7.1359198476456309e-03,
             -0.0457415902206764, -0.0997875867470198,
             -0.2082864230168369, 0.0198568887311627, 0.3626433999031916,
             0.6972384819462321, -0.4945713859627289,
             -0.5924179083187762, -0.1816838546827608,
             1.6358309578498021e-03, -0.1049845947185145,
             -0.1327336945285376, 0.0277490998100234,
             2.0963691918483738e-03, -0.0650622529093850,
             -0.1085545535332836, 0.1353902292188052, 0.1675388992855494,
             0.4939405531955554, -0.4474071275616162,
             -0.2829267116059879, -0.7468449590864928,
             -0.0531754869408801, 0.0104053915178614,
             -0.1310453550591897, -0.0747424657141837,
             -0.0563028893450059, -2.2878950395244569e-03,
             0.0126023803881109, -0.0417778069368930,
             -0.0512790686259830, -0.2238397826725457,
             -0.4180653877476755, 0.3590653679508390, 0.2345368376244818,
             0.0275882124949965, 1.2835551067381182e-03,
             4.9545929188714549e-04, 0.1498452284838234,
             0.0135768878089534, 0.1362683406748698, -0.0173499959727693,
             -0.0320329896079061, 0.1233248143022620, 0.8045317328466571,
             -0.4726919474666916, -0.0651278000451108,
             0.0600616086509392, -0.2508701942235571,
             -0.0357699462798474, 0.0238158604827656, 0.0148740084273146,
             0.0335543592991495, 0.0110710080952191, 0.0224833512039304,
             0.0325289321412290, -0.1930285661595962,
             -0.0302704920084085, 0.2680791679932403, 0.7230801231129451,
             -0.5059136492260250, 0.0595970506345416,
             -0.3205182071887772, 0.1799638461479131,
             -0.3241721687705608, -0.0929069883817802,
             -0.1351656467019653, -0.0201358011888244,
             -0.1150298455131399, 4.7600631933430041e-03,
             -0.1122009108147871, -0.8061207972392468,
             0.2509917883913486, 0.0324377088121880, 0.0851089225228725,
             0.1587770201740755, 0.2510805582582408, -0.1080871497267365,
             0.8638506092624529, 0.1773027261280037, 0.0162380678204167,
             0.0112030721878052, 5.0349956326104575e-03,
             0.0201667115389128, 0.2058196154123625, -0.3870235737202778,
             0.0970593894359813, 0.0271280456480474, 0.0742784932240011,
             -0.0403826606149527, 0.0191920468963423,
             1.4491598345353087e-03, 0.2325580046404757,
             0.1570735640438947, -0.1081534003260154,
             -0.0440138031833959, -0.0641395971426194,
             -0.0219594016453005, -0.8692022125275912,
             0.1741121956537248, 0.0534367217907578,
             -2.9526997314614084e-03, 0.2042107180264451,
             0.1067832901845472, 0.2474179879228637, 0.0465826523987998,
             -0.2278844457922233, 0.9662681292674605, 0.0123200107322493,
             -9.9665835425359461e-03, 0.0222865942747858,
             8.9453028983946629e-03, 0.0945123322326156,
             -0.0349367666645750, -5.3334955722889590e-03,
             -8.1232581712246295e-03, -0.0325307956338634,
             -9.5118464235287043e-03, -7.0146193328133016e-04,
             -2.3607557642432889e-03, 9.8468159670560846e-03,
             9.4059114240096636e-03, -0.0825589774899413,
             -0.0360668841127667, -0.0464920933771683,
             -0.9392357153577758, 0.1420660091803073, 0.1036995436525455,
             0.1218773191867080, 0.1580319701263659, 0.1029865936688575,
             0.1134207350213965, 0.1145945670316504,
             1.7540516943546325e-18, 9.0172993214712671e-16,
             -2.6919059992566434e-16, -0.4259289304506955,
             0.5705952316108858, 0.5705952316108858, -0.1446663011601858,
             -0.1446663011601901, -0.1446663011601898,
             -0.1446663011601901, -0.1446663011601902,
             -0.1446663011601899, -0.1446663011601900,
             -0.1446663011601901, 7.0593259607323083e-17,
             -1.9187214699250772e-16, 4.4665822891764967e-16,
             -0.4507770300497914, 0.1434396312626529, 0.1434396312626530,
             0.3073373987871384, 0.3073373987871390, 0.3073373987871387,
             0.3073373987871387, 0.3073373987871388, 0.3073373987871384,
             0.3073373987871387, 0.3073373987871385 ]
   c: !!opencv-matrix
      rows: 1
      cols: 3
      dt: d
      data: [ -45.4184300558889404, -38.2085396081573521,
          -34.9151978754547088 ]
