%YAML:1.0
my_nb: !!opencv-ml-bayesian
   var_count: 14
   var_all: 14
   cls_labels: !!opencv-matrix
      rows: 1
      cols: 2
      dt: i
      data: [ 0, 1 ]
   count:
      - !!opencv-matrix
         rows: 1
         cols: 14
         dt: i
         data: [ 107, 107, 107, 107, 107, 107, 107, 107, 107, 107, 107,
             107, 107, 107 ]
      - !!opencv-matrix
         rows: 1
         cols: 14
         dt: i
         data: [ 125, 125, 125, 125, 125, 125, 125, 125, 125, 125, 125,
             125, 125, 125 ]
   sum:
      - !!opencv-matrix
         rows: 1
         cols: 14
         dt: d
         data: [ 135., 620., 1910., 1259., 880., 379., 1., 22., 48., 79.,
             126., 164., 213., 606. ]
      - !!opencv-matrix
         rows: 1
         cols: 14
         dt: d
         data: [ 982., 1472., 708., 984., 693., 291., 0., 27., 64., 88.,
             141., 122., 81., 461. ]
   productsum:
      - !!opencv-matrix
         rows: 14
         cols: 14
         dt: d
         data: [ 335., 844., 2410., 1451., 1011., 440., 1., 42., 70.,
             73., 117., 186., 308., 654., 844., 3648., 11074., 7204.,
             5036., 2168., 6., 135., 283., 452., 698., 928., 1250.,
             3452., 2410., 11074., 34110., 22458., 15702., 6756., 18.,
             392., 858., 1406., 2241., 2928., 3808., 10807., 1451.,
             7204., 22458., 15591., 10807., 4784., 12., 235., 571., 988.,
             1682., 2013., 2539., 7551., 1011., 5036., 15702., 10807.,
             7766., 3041., 10., 177., 404., 682., 1149., 1395., 1780.,
             5210., 440., 2168., 6756., 4784., 3041., 1743., 2., 58.,
             167., 306., 533., 618., 759., 2341., 1., 6., 18., 12., 10.,
             2., 1., 0., 0., 1., 4., 0., 0., 6., 42., 135., 392., 235.,
             177., 58., 0., 26., 8., 7., 4., 30., 39., 121., 70., 283.,
             858., 571., 404., 167., 0., 8., 72., 47., 43., 50., 65.,
             286., 73., 452., 1406., 988., 682., 306., 1., 7., 47., 155.,
             97., 105., 109., 467., 117., 698., 2241., 1682., 1149.,
             533., 4., 4., 43., 97., 312., 204., 208., 810., 186., 928.,
             2928., 2013., 1395., 618., 0., 30., 50., 105., 204., 430.,
             324., 870., 308., 1250., 3808., 2539., 1780., 759., 0., 39.,
             65., 109., 208., 324., 725., 1069., 654., 3452., 10807.,
             7551., 5210., 2341., 6., 121., 286., 467., 810., 870.,
             1069., 3922. ]
      - !!opencv-matrix
         rows: 14
         cols: 14
         dt: d
         data: [ 7796., 11623., 5534., 7704., 5419., 2285., 0., 212.,
             480., 700., 1098., 956., 653., 3605., 11623., 17418., 8342.,
             11553., 8143., 3410., 0., 319., 741., 1035., 1648., 1428.,
             959., 5423., 5534., 8342., 4168., 5638., 3938., 1700., 0.,
             155., 386., 512., 809., 680., 463., 2633., 7704., 11553.,
             5638., 8136., 5536., 2600., 0., 237., 563., 771., 1089.,
             992., 677., 3807., 5419., 8143., 3938., 5536., 4065., 1471.,
             0., 164., 360., 483., 811., 696., 429., 2593., 2285., 3410.,
             1700., 2600., 1471., 1129., 0., 73., 203., 288., 278., 296.,
             248., 1214., 0., 0., 0., 0., 0., 0., 0., 0., 0., 0., 0., 0.,
             0., 0., 212., 319., 155., 237., 164., 73., 0., 37., 10.,
             14., 20., 24., 13., 119., 480., 741., 386., 563., 360.,
             203., 0., 10., 98., 34., 57., 60., 38., 266., 700., 1035.,
             512., 771., 483., 288., 0., 14., 34., 146., 67., 90., 77.,
             343., 1098., 1648., 809., 1089., 811., 278., 0., 20., 57.,
             67., 257., 103., 87., 498., 956., 1428., 680., 992., 696.,
             296., 0., 24., 60., 90., 103., 206., 58., 451., 653., 959.,
             463., 677., 429., 248., 0., 13., 38., 77., 87., 58., 127.,
             277., 3605., 5423., 2633., 3807., 2593., 1214., 0., 119.,
             266., 343., 498., 451., 277., 1853. ]
   avg:
      - !!opencv-matrix
         rows: 1
         cols: 14
         dt: d
         data: [ 1.2616822429906542, 5.7943925233644862,
             17.8504672897196279, 11.7663551401869153,
             8.2242990654205599, 3.5420560747663550,
             9.3457943925233638e-03, 0.2056074766355140,
             0.4485981308411215, 0.7383177570093458, 1.1775700934579438,
             1.5327102803738317, 1.9906542056074767, 5.6635514018691593 ]
      - !!opencv-matrix
         rows: 1
         cols: 14
         dt: d
         data: [ 7.8559999999999999, 11.7759999999999998,
             5.6639999999999997, 7.8719999999999999, 5.5439999999999996,
             2.3279999999999998, 0., 0.2160000000000000,
             0.5120000000000000, 0.7040000000000000, 1.1279999999999999,
             0.9760000000000000, 0.6480000000000000, 3.6880000000000002 ]
   inv_eigen_values:
      - !!opencv-matrix
         rows: 1
         cols: 14
         dt: d
         data: [ 0.0676667935279287, 0.1962792889117182,
             0.2488273472519625, 0.3522152717589416, 0.4786108765559657,
             0.8315360465509520, 0.9102229473874316, 2.2485418030904372,
             2.9741613967907083, 5.3174417671154135, 8.4405412351913842,
             106.8105360445990613, 8388608., 8388608. ]
      - !!opencv-matrix
         rows: 1
         cols: 14
         dt: d
         data: [ 0.0159037421946265, 0.1440857874486965,
             0.3447881488820320, 0.7638222971779404, 1.0413717787501284,
             1.0728506573775665, 1.3285173416616807, 1.8762682400851627,
             2.0491263925371799, 3.1937168926111408, 5.6639803222646607,
             8388608., 8388608., 8388608. ]
   cov_rotate_mats:
      - !!opencv-matrix
         rows: 14
         cols: 14
         dt: d
         data: [ -0.1733885382618827, -0.0940141916032039,
             -0.0149458855582423, 0.6860079171383185, 0.4230692013256536,
             0.2629387158126650, 7.8071435737815751e-04,
             -0.0211419363919192, 6.3593939839609766e-03,
             0.0521022750522834, 0.1878115497568294, 0.0483387364610670,
             -0.0355325785109242, 0.4472897624296431, 0.0398612468829463,
             0.0184577135778987, -0.0109492398939918,
             7.1557112901704575e-03, -0.6705092678643597,
             0.6776649791545299, -2.9884054545147522e-03,
             -0.0209765326003312, 4.7893089591206405e-03,
             0.0229014710212196, 0.0306596493033937, -0.0522607149101498,
             -0.1925527783132701, 0.2175837132847024, 0.2881012808979201,
             0.0446550380558525, 5.2287280969344823e-03,
             0.2842656403012972, -0.0257070306298916, 0.3099726709311887,
             -5.6113745124902930e-03, -0.0246969899004480,
             -0.0800291921730472, -0.0925174827489136,
             -2.3252829254475278e-03, 0.2180036830309575,
             0.7002777463857458, -0.4288354668550594, 0.8768313948934733,
             0.1450585305303249, -9.2442583161682964e-03,
             0.0348006740209623, 0.1125351166109105, -0.0777344425899486,
             2.2775747241079308e-03, 0.0528566710107296,
             0.0931917612027370, -0.0314081237774711,
             -0.0210550167234560, -0.2921459670041696,
             -0.0649557076657902, 0.2960394822542747,
             -0.2936680158955261, 0.0402694868994776, 0.0198735080935280,
             -0.0839395812969087, -0.0594933110571634,
             -0.0244462702397451, -3.4020743411443751e-03,
             0.0189764521205699, 0.0108885988105350, -0.0868855795451708,
             -0.2555156472258280, -0.6456299132387998,
             0.5512376888842163, 0.3263908932387133, 0.0239849099898405,
             -0.0233390351483018, 0.0374010021461328,
             -0.0324581827955333, -6.4480998411210726e-03,
             -0.0260100829544124, -0.0215274401201198,
             0.1532013423362270, -0.0393601079859801,
             -0.3442642452650019, -0.6775694967629392,
             0.5151967804420524, 0.0262057592432165, 0.3556592253170114,
             -1.1035593615513468e-04, 0.0908334924614384,
             1.4170562059448617e-03, 0.1518771491489608,
             0.0620910030189074, 0.0897861461300534, -0.0110480561908766,
             9.2842528463468604e-03, 0.2801721509224436,
             0.7337914506227028, -0.5446661532783074,
             -0.0573045683810816, -0.0730900119784042,
             -0.1852619154138626, 0.1013801336265641,
             -0.1925014512691221, -0.0935429939532222,
             -0.0940433189474137, -0.0293065816444643,
             -0.0647367373029494, 4.2179721604308365e-03,
             0.0157532830395179, -0.8420900663511786, 0.4229652208053230,
             -0.0130506020076048, 0.0546524661626051, 0.0877977727149056,
             0.1757106345285876, 0.1308282044420971, -0.9192992498504371,
             -0.1854839083261223, -0.0439875990801541,
             -0.0356399824906278, -8.3476165895259701e-03,
             -0.0172209562162418, -0.1762836112923823,
             0.2427207237126358, -0.0135309922305488,
             -0.0634801211386338, -0.0514492870909775,
             0.0517355734399843, -0.0164789282639897,
             -0.0356878799880790, -0.0938432265866083,
             -0.4145544630557169, 0.1088608900108498, 0.0305237110601435,
             0.0783371789507073, 3.4679160684821563e-03,
             0.8300800995830451, -0.0650597321960751,
             -0.1126871075719665, -0.0339407551842583,
             -0.1805257344457192, -0.1206395412686443,
             -0.2118342549740139, -0.0320564797812113,
             0.2575129861708857, -0.8844775048210282,
             -0.0471660178713676, -6.3090415421927365e-03,
             -0.0408569763291716, -0.0217271654827513,
             -0.3437547871628018, 0.0686931094276410,
             -2.8486477207011382e-03, -4.5408741162604382e-03,
             0.1035903618808426, 0.0603061021032185, 0.0931158831994470,
             -6.8394380601245373e-04, 8.9510141669294479e-03,
             0.0209214738490383, -0.0817806269008270,
             -0.0376033618139608, -0.0441772650868592,
             -0.9397731942044871, 0.1337283137671461, 0.1109859173358649,
             0.1245964407406811, 0.1467342693015119, 0.1103120615454885,
             0.1148932433433118, 0.1167423212696714,
             -3.1719099340641361e-16, 4.1705918464972142e-16,
             -1.6869342905808290e-15, 0.6175123506704505,
             -0.5232743497790797, -0.5232743497790797,
             -0.0942380008913764, -0.0942380008913710,
             -0.0942380008913708, -0.0942380008913708,
             -0.0942380008913707, -0.0942380008913709,
             -0.0942380008913710, -0.0942380008913708,
             -1.7015455116437670e-16, 6.8148963879051257e-17,
             -4.2426346818952846e-16, -0.0573923460475223,
             -0.2689568757572999, -0.2689568757572998,
             0.3263492218048255, 0.3263492218048222, 0.3263492218048222,
             0.3263492218048221, 0.3263492218048221, 0.3263492218048221,
             0.3263492218048221, 0.3263492218048221 ]
      - !!opencv-matrix
         rows: 14
         cols: 14
         dt: d
         data: [ -0.9999398011642663, -7.6780070773756317e-03,
             3.7202101385379067e-03, 3.7241979193413928e-03,
             3.4119175083759260e-03, 3.1228041096546631e-04, 0.,
             3.7238373987498825e-05, 3.0123878875764334e-03,
             -1.0869960492267705e-03, 1.2691637571305551e-03,
             3.4215330285681226e-04, -2.1606497193820498e-03,
             2.3109003663989128e-03, 3.6985886690517680e-03,
             -0.0427061617192137, 0.1200034057105475, 0.6201391068101187,
             -0.0560505884855551, 0.6761896952956739, 0.,
             0.0319909491381496, 0.1060381772644758, 0.1484578684154665,
             -0.0810319765987859, 0.0354142067523086, 0.0783592044423338,
             0.3009106773961705, -6.0577138858914099e-03,
             0.0867686838420249, -0.0962949879465965,
             -0.3817977418121588, -0.7729565062550775,
             0.3911587644429185, 0., -0.0609296923100453,
             -0.0475712203319350, 0.0256410711332617,
             -0.1097268674145186, -0.0756862546893190,
             0.1106892076914408, -0.2242139858910435,
             2.4075862533151642e-03, 0.0623099008905512,
             0.8237845216981653, -0.0384910222349212,
             -0.0406729232695793, 2.1819010346582463e-03, 0.,
             -0.0441118815551830, 0.0827978071903422,
             -0.0715637624518285, 0.3686101994325376,
             -0.3640371657596042, 0.1213565081724197,
             -0.1315427272636049, -6.9610381525407529e-04,
             0.2736587695800864, 0.4892413779647352, -0.1253636417707664,
             -0.0302068122071595, -0.0951568295636063, 0.,
             0.0406736535666242, 0.0856983666050938, 0.1404641621008925,
             -0.6134812292320434, 0.4258452322285442,
             -0.2646313112672445, 0.0600674842273670,
             2.9027031763970063e-03, -0.0378305911343298,
             -0.0233574713709340, -0.1481597797444674,
             -0.1860407535952366, 0.0378809738507690, 0.,
             0.0846934938233422, 0.2707917433740254, -0.5243488521943429,
             0.1269399094137176, -0.1063624359025236,
             -0.5277378267913014, 0.5278641885326154,
             -6.4356476145270240e-03, 0.7114698421368019,
             -0.1313185441824173, -0.0223532815775954,
             0.0523255196724002, -0.0746788012499956, 0.,
             0.1387702462705225, -0.2181909122825362, 0.1506608836958944,
             -0.1069400717796726, -0.4713372485874818,
             0.1259529244904531, 0.3587308966152252,
             4.2519163404834334e-04, 0.0260326143634522,
             -0.0989705801514967, 0.0320946628336005, 0.0955443192191053,
             -0.0634496563855078, -2.8796409701214998e-16,
             9.1383412206919121e-03, 0.6839814941777395,
             -0.3086026574538511, -0.4000661036646265,
             -0.2316588893296116, 0.4220240811422579,
             -0.1427216032590048, -3.5878477075590772e-03,
             0.5557019842432288, -0.0447960333285354, 0.1495606516844677,
             0.0334241241774466, 0.1161365275070208,
             2.7755575615628914e-17, -0.0205779467562939,
             -0.0474804870021277, -0.5013441110888752,
             0.2976662811125358, 0.4923820844152250, 0.1441889444167848,
             -0.2152741134127814, 8.0050017647704272e-04,
             -0.2691407227372040, 0.1357033119708635,
             -0.0163573821613980, -0.0204540630563528,
             4.0966808949527344e-03, -1.1102230246251565e-16,
             0.6662533487969317, -0.4359641069599605,
             -0.3734495157172772, -0.2237996931036876,
             5.2255724813962236e-03, 0.2850840322050882,
             0.0602929801361077, 4.4729658313255187e-04,
             -0.1492553875479058, 0.1016226998069876,
             -0.1225770949560398, -0.0312845796662700,
             -0.0912925152897677, 3.8857805861880479e-16,
             -0.6248187805131751, -0.2465037806841278,
             -0.1957774254159701, -0.1114917835740650,
             0.1382399035161576, 0.4380320937975514, 0.4797426779175951,
             0., 5.0931295928402551e-17, 4.1939410625113300e-16,
             0.6025247761661131, -0.5565969185669167,
             -0.5565969185669168, -0.0509711473682526,
             -0.0459278575991987, -0.0459278575991978,
             -0.0459278575991960, -0.0459278575991960,
             -0.0459278575991961, -0.0459278575991971,
             -0.0459278575991958, 0., -8.8528811286889661e-17,
             1.2236290850596548e-16, 0.1387179153179121,
             0.1879187889174781, 0.1879187889174781, -0.4040911303618562,
             -0.3266367042353922, -0.3266367042353915,
             -0.3266367042353902, -0.3266367042353900,
             -0.3266367042353900, -0.3266367042353906,
             -0.3266367042353895, 0., -6.3909941229762167e-18,
             -1.9131420239378328e-17, 0.0950030625922884,
             0.0520815319486950, 0.0520815319486950, 0.9132974874042089,
             -0.1470845945409839, -0.1470845945409837,
             -0.1470845945409833, -0.1470845945409832,
             -0.1470845945409834, -0.1470845945409835,
             -0.1470845945409832 ]
   c: !!opencv-matrix
      rows: 1
      cols: 2
      dt: d
      data: [ -34.4888108095814019, -45.0512953267887255 ]
